svm_type c_svc
kernel_type rbf
gamma 0.010101
nr_class 3
total_sv 96
rho -0.652597 -1.60022 -1.106
label 1 -1 0
nr_sv 51 39 6
SV
14.3142276344528 3.657681461020494 1:0 2:0 3:1 4:1 5:1 6:0 7:0 8:0 9:1 83:1 
64 0 1:0 2:0 3:0 4:0 5:0 6:0 7:0 8:0 10:1 
11.33220088944625 0 1:1 2:0 3:1 4:1 5:1 6:0 7:0 8:0 12:1 76:1 83:1 
11.34306003549649 0 1:1 2:0 3:1 4:1 5:1 6:0 7:0 8:0 12:1 83:1 91:1 
64 0 1:0 2:0 3:0 4:0 5:0 6:0 7:0 8:0 13:1 
0 3.337153484869074 1:0 2:0 3:0 4:1 5:1 6:0 7:0 8:0 11:1 82:1 83:1 
64 0 1:0 2:0 3:0 4:0 5:1 6:0 7:0 8:0 15:1 98:1 
0 7.614909642292226 1:0 2:0 3:0 4:1 5:1 6:0 7:0 8:0 16:1 83:1 
64 7.068647430337184 1:0 2:0 3:0 4:0 5:0 6:0 7:0 8:0 17:1 
7.799907878054317 0 1:1 2:0 3:1 4:1 5:0 6:0 7:0 8:0 12:1 90:1 
64 0 1:0 2:0 3:0 4:0 5:1 6:0 7:0 8:0 19:1 83:1 
0 19.48218487471162 1:0 2:0 3:0 4:1 5:0 6:1 7:1 8:0 20:1 71:1 
64 0 1:0 2:0 3:0 4:0 5:0 6:0 7:0 8:0 21:1 
53.79432137602517 1.119463280905197 1:0 2:0 3:0 4:0 5:1 6:1 7:1 8:0 26:1 71:1 
0 7.626137050260684 1:0 2:0 3:0 4:1 5:1 6:0 7:0 8:0 27:1 83:1 
64 0 1:1 2:0 3:1 4:1 5:1 6:0 7:0 8:0 18:1 83:1 95:1 98:1 
0 7.619706853326266 1:0 2:0 3:0 4:1 5:1 6:0 7:0 8:0 28:1 83:1 
0 4.99014008927673 1:0 2:0 3:0 4:1 5:1 6:1 7:1 8:1 29:1 72:1 83:1 89:1 
32.99995076131249 0 1:0 2:0 3:0 4:1 5:1 6:0 7:0 8:0 30:1 78:1 80:1 
0 3.871922203595091 1:0 2:0 3:0 4:1 5:0 6:0 7:0 8:0 25:1 
0 17.61396544244962 1:0 2:0 3:0 4:1 5:1 6:1 7:1 8:0 30:1 71:1 83:1 
0 60.95796360753777 1:0 2:0 3:0 4:1 5:0 6:1 7:1 8:0 20:1 71:1 
0 0.3860532337013313 1:0 2:0 3:0 4:1 5:0 6:0 7:0 8:0 32:1 90:1 96:1 
64 0 1:0 2:0 3:0 4:0 5:0 6:0 7:0 8:0 34:1 
0 16.45198138471183 1:0 2:0 3:0 4:1 5:0 6:1 7:1 8:0 35:1 71:1 
0 8.87971578371449 1:1 2:0 3:0 4:1 5:1 6:1 7:1 8:0 12:1 71:1 72:1 
0 17.61396544244967 1:0 2:0 3:0 4:1 5:1 6:1 7:1 8:0 36:1 71:1 83:1 
7.275625652922543 2.651514921205152 1:0 2:0 3:0 4:0 5:0 6:1 7:1 8:0 23:1 71:1 92:1 
0 3.869614974178934 1:0 2:0 3:0 4:1 5:0 6:0 7:0 8:0 43:1 
0 11.21239633125347 1:0 2:0 3:0 4:1 5:1 6:1 7:1 8:0 17:1 68:1 83:1 
43.49067047507841 0 1:0 2:0 3:0 4:0 5:1 6:1 7:0 8:0 44:1 69:1 83:1 89:1 
64 0 1:0 2:0 3:0 4:0 5:1 6:0 7:0 8:0 13:1 81:1 83:1 
64 0 1:0 2:0 3:0 4:0 5:0 6:0 7:0 8:0 13:1 
0 2.913377984782789 1:1 2:0 3:0 4:1 5:1 6:1 7:1 8:0 46:1 71:1 83:1 
0 0.6293779365716395 1:0 2:0 3:0 4:1 5:0 6:1 7:0 8:0 15:1 75:1 95:1 
2.98802596773706 7.622553394367803 1:0 2:0 3:0 4:1 5:1 6:0 7:0 8:0 42:1 83:1 
0 3.853483731933559 1:0 2:0 3:0 4:1 5:0 6:0 7:0 8:0 33:1 
14.92601395009367 0 1:1 2:0 3:1 4:1 5:0 6:0 7:0 8:0 18:1 
6.704653404391061 2.213456708022478 1:0 2:0 3:0 4:1 5:1 6:0 7:0 8:0 45:1 83:1 84:1 90:1 
14.91684445115651 0 1:1 2:0 3:1 4:1 5:0 6:0 7:0 8:0 46:1 
0 0.6387602422702362 1:0 2:0 3:0 4:1 5:0 6:0 7:0 8:0 11:1 
0 0.6942091565382724 1:0 2:0 3:0 4:1 5:1 6:0 7:0 8:0 55:1 
64 0 1:0 2:0 3:0 4:0 5:0 6:0 7:0 8:0 13:1 
31.15078098901538 0 1:0 2:0 3:0 4:0 5:1 6:1 7:1 8:0 17:1 68:1 83:1 
50.84383016921129 0 1:1 2:0 3:1 4:0 5:0 6:1 7:1 8:0 24:1 68:1 
0 3.868147853055114 1:0 2:0 3:0 4:1 5:0 6:0 7:0 8:0 56:1 
0 0.008150528082326918 1:0 2:0 3:0 4:1 5:0 6:0 7:0 8:0 57:1 99:1 
0 3.656703578450215 1:0 2:0 3:0 4:1 5:1 6:0 7:0 8:0 58:1 83:1 91:1 
0 2.913377984782792 1:1 2:0 3:0 4:1 5:1 6:1 7:1 8:0 18:1 71:1 83:1 
0 3.657375238844202 1:0 2:0 3:0 4:1 5:1 6:0 7:0 8:0 62:1 83:1 99:1 
0 37.98949808837212 1:0 2:0 3:0 4:1 5:1 6:1 7:1 8:0 17:1 71:1 72:1 80:1 83:1 
-29.39370104527952 0 1:1 2:0 3:1 4:1 5:0 6:0 7:0 8:0 12:1 95:1 98:1 
-41.54786679235639 0 1:0 2:0 3:0 4:0 5:1 6:0 7:0 8:0 19:1 98:1 
-0.3847989101510633 0 1:1 2:0 3:0 4:0 5:0 6:0 7:0 8:0 22:1 
-2.264545517959852 0 1:1 2:0 3:0 4:0 5:0 6:0 7:0 8:0 22:1 
-64 11.58814201660911 1:1 2:0 3:1 4:0 5:0 6:1 7:1 8:0 18:1 71:1 
-5.971228547845701 0 1:1 2:0 3:1 4:0 5:0 6:0 7:0 8:0 24:1 
-27.66439251934046 0 1:0 2:0 3:0 4:0 5:0 6:0 7:0 8:0 13:1 
-4.786557708276257 0 1:0 2:0 3:0 4:0 5:1 6:0 7:0 8:0 13:1 86:1 89:1 
-64 0 1:0 2:0 3:0 4:0 5:0 6:0 7:0 8:0 13:1 
-64 0 1:0 2:0 3:0 4:0 5:0 6:0 7:0 8:0 13:1 
-64 0 1:0 2:0 3:0 4:0 5:0 6:0 7:0 8:0 13:1 
-19.65328697185762 64 1:0 2:0 3:0 4:1 5:1 6:0 7:0 8:0 31:1 83:1 95:1 98:1 
-0 1.347852682770111 1:0 2:0 3:0 4:0 5:1 6:0 7:0 8:0 39:1 83:1 98:1 
-0 0.1921118038005038 1:0 2:0 3:0 4:0 5:0 6:0 7:0 8:0 40:1 83:1 96:1 98:1 
-5.701623585870899 0 1:0 2:0 3:1 4:0 5:1 6:0 7:0 8:0 41:1 83:1 89:1 
-8.978839281610206 0 1:0 2:0 3:1 4:0 5:0 6:0 7:0 8:0 42:1 
-12.29444867664031 0 1:1 2:0 3:1 4:0 5:0 6:0 7:0 8:0 24:1 
-44.28700494560672 3.540570856757901 1:0 2:0 3:0 4:0 5:0 6:1 7:1 8:0 44:1 68:1 77:1 80:1 98:1 
-33.78958125125652 1.574106454985636 1:0 2:0 3:0 4:0 5:0 6:0 7:0 8:0 45:1 
-57.20191719353782 1.592329071985169 1:0 2:0 3:0 4:0 5:0 6:0 7:0 8:0 13:1 
-27.40867602768318 1.574106454985666 1:0 2:0 3:0 4:0 5:0 6:0 7:0 8:0 47:1 
-8.052213411602866 0 1:0 2:0 3:0 4:0 5:0 6:0 7:0 8:0 48:1 80:1 
-9.242402022151847 0 1:0 2:0 3:0 4:0 5:1 6:0 7:0 8:0 49:1 83:1 87:1 
-64 0 1:0 2:0 3:0 4:0 5:1 6:0 7:0 8:0 17:1 
-34.85843775278899 0 1:1 2:0 3:1 4:0 5:1 6:0 7:0 8:0 24:1 83:1 
-49.990440116964 0 1:0 2:0 3:1 4:1 5:1 6:0 7:0 8:0 26:1 83:1 95:1 98:1 
-23.6661936548623 0 1:1 2:0 3:0 4:0 5:1 6:0 7:0 8:0 22:1 83:1 
-9.249247299621221 9.835439149437072 1:0 2:0 3:0 4:0 5:1 6:0 7:0 8:0 20:1 83:1 87:1 
-58.50118840328566 5.55286531619228 1:0 2:0 3:0 4:0 5:1 6:0 7:0 8:0 30:1 83:1 
-26.10758978772093 2.769404288735593 1:0 2:0 3:0 4:0 5:1 6:0 7:0 8:0 59:1 83:1 89:1 
-2.217477169989691 0 1:1 2:0 3:0 4:0 5:0 6:0 7:0 8:0 24:1 80:1 94:1 
-8.099461913436228 0 1:0 2:0 3:0 4:0 5:0 6:0 7:0 8:0 17:1 
-30.62798968167932 2.458406334538354 1:0 2:0 3:0 4:0 5:1 6:0 7:0 8:0 61:1 
-7.605289818680308 0 1:0 2:0 3:0 4:0 5:1 6:1 7:0 8:0 17:1 74:1 83:1 89:1 
-18.28477469938541 4.272569673598664 1:0 2:0 3:0 4:0 5:1 6:1 7:0 8:0 17:1 74:1 83:1 
-26.81725899626289 5.565379640089898 1:0 2:0 3:0 4:0 5:1 6:0 7:0 8:0 64:1 83:1 
-25.81697236624198 4.291452729200768 1:0 2:0 3:0 4:0 5:1 6:1 7:0 8:0 17:1 73:1 83:1 
-0 4.433763973427035 1:0 2:0 3:0 4:0 5:1 6:0 7:0 8:0 17:1 83:1 
-27.41470756444729 1.587635929054295 1:0 2:0 3:0 4:0 5:0 6:0 7:0 8:0 60:1 
-64 -33.64695714670902 1:0 2:0 3:0 4:1 5:1 6:0 7:0 8:0 31:1 83:1 
-11.33166171116862 -0 1:0 2:0 3:0 4:1 5:1 6:1 7:1 8:0 31:1 71:1 83:1 
-9.351928206701752 -64 1:0 2:0 3:0 4:1 5:1 6:0 7:0 8:0 31:1 83:1 98:1 
-64 -5.860710273594226 1:0 2:0 3:0 4:1 5:0 6:1 7:1 8:0 63:1 71:1 
-64 -15.01785130842028 1:0 2:0 3:0 4:1 5:0 6:1 7:1 8:0 20:1 71:1 
-64 -7.65061764744453 1:0 2:0 3:0 4:1 5:1 6:1 7:1 8:0 17:1 71:1 72:1 83:1 
